34 64
1 0.041419577 0.21600318 0.047138933 0.19713397 -0.033177752 0.12666172 0.111205615 0.17586966 -0.12927651 -0.022702912 -0.10401899 0.30624345 -0.017192809 -0.2509328 -0.13844636 0.14469714 -0.28411067 -0.076952465 -0.0010302757 -0.15374985 -0.26353744 0.038198117 -0.20259255 0.09933025 0.19303314 0.29562676 0.09826437 0.22692573 -0.0005636082 0.075958386 0.1271893 -0.06234789 0.035947926 -0.02032259 -0.23357128 0.37089568 -0.19090766 -0.032670375 0.17366175 -0.3572446 -0.07151419 0.09667974 -0.21400125 0.14531967 0.016459424 -0.3155212 -0.06416885 0.23851712 -0.0530438 0.022466896 -0.041879073 -0.13627617 0.07236862 -0.07533207 0.10661173 0.0065709576 0.31474206 -0.09417239 -0.007307892 -0.05051213 0.0057257405 0.05968955 -0.2255549 0.17321976
34 -0.055913884 -0.22997989 -0.05972209 -0.038261414 0.0017845423 0.28485864 -0.08381966 0.05091389 -0.1326867 -0.042219922 0.16186643 0.01155692 -0.10174253 -0.11149967 -0.043822553 -0.026027836 -0.03791323 -0.10385315 -0.05895369 0.10639129 0.096719794 -0.27167648 0.17860128 -0.0047343383 0.22780198 0.32965147 0.3487484 -0.13126399 -0.0807049 0.08536121 0.19162785 -0.0027643442 0.30183855 0.116589166 -0.30799022 0.09576425 -0.16114089 0.026633935 0.35423213 -0.21333618 -0.37285 0.05594672 0.1668023 0.17705972 -0.023315307 -0.018123018 0.31567988 0.052694082 -0.044329498 -0.047785893 -0.34318963 0.019641101 0.1422877 -0.11441322 0.010463396 0.082625724 0.12647523 -0.096408375 -0.021760667 0.10257403 0.34666994 -0.030124145 -0.23675233 0.36292854
33 -0.0546295 -0.2766265 -0.046263963 -0.052305292 -0.018509518 0.29318106 -0.04476174 0.08974569 -0.093616225 -0.05731864 0.19093634 -0.065727524 -0.052067228 -0.11529362 -0.015537344 -0.032813672 -0.03641018 -0.11088182 -0.08471911 0.16175684 0.08011666 -0.26414958 0.16521479 -0.015551804 0.21083187 0.2810544 0.2917611 -0.12358409 -0.013050273 0.063669056 0.23913221 0.0077767954 0.24875551 0.14817666 -0.29279414 0.053690907 -0.17064652 0.013567041 0.41077182 -0.22227347 -0.3288562 0.056520738 0.20109676 0.14280859 0.016148662 -0.0020949845 0.28978857 0.02770486 -0.09467504 -0.045218773 -0.3821089 0.02279483 0.105293944 -0.1231128 0.019567195 0.13960247 0.120921165 -0.09728273 -0.031143004 0.1007614 0.34208116 -0.013348647 -0.2051354 0.42604172
3 -0.025859972 0.0121010635 -0.013496982 0.030784935 -0.07289971 0.22663237 0.08045989 0.12889694 -0.13344249 -0.053848144 0.08817385 0.1529316 -0.16918346 -0.29931813 -0.21952052 0.010080915 -0.11693247 -0.14102271 -0.13371837 -0.088285506 -0.12754105 -0.113593146 0.045182798 0.0431753 0.23405151 0.29553244 0.22437806 0.061259963 -0.13820164 0.11901287 0.0780281 -0.03911344 0.19166271 0.1545755 -0.20147589 0.23122396 -0.10846582 0.07898123 0.2189578 -0.26158908 -0.11201593 0.009456473 0.0067029363 0.24290317 -0.036532085 -0.20819214 0.23421693 0.08756397 0.013931704 -0.05862739 -0.11407753 -0.060450178 0.13001756 -0.0792274 -0.0121425865 0.07702119 0.23400402 -0.009680055 0.010230643 0.011500831 0.288842 -0.03938899 -0.2909591 0.29833427
2 -0.01476647 0.18155217 0.006551629 0.07188993 -0.12923412 0.17815685 0.18523479 0.18169428 -0.1381335 -0.06597458 0.026359241 0.24798079 -0.17291805 -0.4057554 -0.3139746 0.08080493 -0.2119616 -0.17968088 -0.18446682 -0.20141071 -0.2929002 0.0005814783 -0.08391393 0.09561208 0.26034433 0.27897355 0.13818304 0.19745371 -0.13835597 0.1457416 0.056633998 -0.09148637 0.12727357 0.18955606 -0.15496127 0.34398794 -0.10715461 0.06569624 0.14973046 -0.30925816 0.051209345 0.025315268 -0.103228964 0.26466364 -0.011927901 -0.36355126 0.1361701 0.14715551 0.0039904327 -0.049944356 -0.011354622 -0.12588212 0.11832123 -0.05756593 -0.0012188539 0.100763515 0.33922467 0.042931225 0.018321384 -0.04258176 0.23836657 -0.057548985 -0.309293 0.28196624
4 -0.012858886 0.21206123 0.008787485 0.11167598 -0.13804978 0.17961335 0.18943265 0.18000895 -0.15754879 -0.058159057 0.0021600153 0.2793681 -0.2055021 -0.4535666 -0.33732426 0.06796029 -0.20025939 -0.1857749 -0.1796088 -0.22370215 -0.31649026 -0.0025298123 -0.07365415 0.101032406 0.24871388 0.2908449 0.1324609 0.21518582 -0.17010473 0.15292892 0.02051155 -0.087573595 0.109068975 0.18211922 -0.14708827 0.369419 -0.110273995 0.09626382 0.13249604 -0.31888062 0.057136334 -0.0015547953 -0.105182976 0.28812245 -0.051120345 -0.3799098 0.17046228 0.13699454 0.04189383 -0.0456056 0.042525508 -0.14033067 0.13585782 -0.063773476 -0.0045842654 0.08254694 0.3501833 0.0399042 0.029187493 -0.0515421 0.2518706 -0.05527243 -0.3479246 0.25219667
32 -0.031733282 0.017326165 -0.1625099 -0.020036055 0.1731547 0.15559155 -0.22195862 -0.10852005 -0.31826565 -0.025368452 0.017863056 0.27236953 0.014978855 -0.110170476 0.057518814 0.067719385 -0.018229667 -0.048548106 0.117323875 0.10011752 0.17544745 -0.19832075 0.032285225 -0.023278581 0.07285153 0.33661768 0.43397036 0.0027562464 -0.112078905 0.08656401 0.12003258 0.09467776 0.36819217 -0.06889473 -0.35679293 0.21687667 -0.025542822 -0.07021505 0.18890992 -0.1300379 -0.5097436 0.07726116 0.010713764 0.0068075983 -0.15130943 0.024520373 0.121723846 0.19606021 0.040631738 -0.045535132 -0.3329713 -0.046180926 0.073106155 -0.10684952 0.11838375 -0.11891329 0.15260512 -0.24948202 0.0639413 0.12658688 0.18236776 0.05782236 -0.20559144 0.16179554
14 0.0063562887 0.06958643 -0.0020537907 0.09738901 -0.0573737 0.19564031 0.09891959 0.15095225 -0.13341741 -0.053791437 0.031818993 0.20797794 -0.104243726 -0.28677848 -0.16585831 0.047870103 -0.16844451 -0.10851386 -0.09398276 -0.07128198 -0.1807181 -0.041852348 -0.07510668 0.047378402 0.20114341 0.29412234 0.14642991 0.12839107 -0.05208754 0.10966312 0.12949382 -0.04910882 0.13223457 0.08344288 -0.19428793 0.28346172 -0.13447917 0.038896997 0.22447808 -0.2957653 -0.09385215 0.040562548 -0.05222743 0.18854503 -0.002582927 -0.2575864 0.13461325 0.1385725 -0.03499313 -0.028360331 -0.11131445 -0.095553674 0.08576394 -0.07828066 0.040799543 0.072829604 0.26527748 -0.053531647 -0.0003210348 0.0081025 0.1950101 -0.0007160047 -0.24929178 0.2740167
24 -0.09542245 -0.14551295 -0.19595721 -0.10098925 0.1223388 0.22388555 -0.22644813 -0.10685599 -0.28588694 -0.058004547 0.13595724 0.14090377 -0.058727536 -0.11078568 0.029059384 0.0014438613 0.043719076 -0.09807388 0.031675607 0.16608983 0.24670424 -0.2944669 0.18660285 -0.0512738 0.14180486 0.3357733 0.49477625 -0.12242964 -0.14902417 0.110469446 0.1433817 0.070943974 0.4324389 0.044865903 -0.34602806 0.11944171 -0.02203705 -0.008895767 0.2555317 -0.08590589 -0.53926444 0.03821948 0.16895369 0.05173381 -0.15327127 0.072214 0.29394472 0.09732025 0.034055017 -0.08180055 -0.41795677 0.006237018 0.09854373 -0.11347108 0.046965994 -0.020519149 0.11966907 -0.19616865 0.04226948 0.1684975 0.3500985 0.007118461 -0.23709112 0.28704423
9 -0.03907185 -0.12346241 -0.051367864 0.005521836 -0.012174395 0.23720068 -0.03195227 0.08439694 -0.12820674 -0.037703782 0.10072815 0.070034176 -0.067216285 -0.14248903 -0.057407886 0.0059494823 -0.09821313 -0.09006394 -0.049866132 0.048381854 0.020592809 -0.1824867 0.07319766 0.008949121 0.21228886 0.29966608 0.27331805 -0.039270665 -0.04942309 0.091158904 0.19041261 -0.014887006 0.22786376 0.07580137 -0.26755503 0.16323233 -0.15697388 0.0054204087 0.30016887 -0.23068145 -0.28708348 0.063058056 0.06587581 0.14423382 -0.0019509858 -0.091525935 0.19818348 0.10143563 -0.05213883 -0.028084332 -0.27659917 -0.018308993 0.10282759 -0.10244404 0.04100911 0.075430885 0.16087765 -0.09505091 -0.013452002 0.071141675 0.23220205 0.00089166977 -0.21346788 0.31937292
8 -0.0028820164 0.13907026 0.006356642 0.1043969 -0.11475916 0.2191149 0.16029531 0.19327475 -0.12714133 -0.06655682 0.036012966 0.24857473 -0.20494676 -0.39913228 -0.2850762 0.0541397 -0.19384357 -0.15621333 -0.17959702 -0.17706104 -0.27132317 -0.0303748 -0.049298085 0.07787041 0.24045074 0.31941268 0.13076629 0.15264805 -0.12568904 0.12895553 0.06942954 -0.08085819 0.12274097 0.16332124 -0.15441358 0.3286765 -0.13424611 0.10588403 0.18534005 -0.31801873 0.0012716674 0.007477406 -0.065662704 0.29016432 -0.029763417 -0.35379276 0.1927607 0.12907842 0.028793741 -0.04909635 -0.011489704 -0.112279825 0.13643198 -0.059510697 -0.010832939 0.08704739 0.32096297 0.029752279 -0.00053327845 -0.038475405 0.2579565 -0.05524497 -0.3279191 0.28023785
28 -0.06410135 0.0043052444 -0.1700751 -0.041893367 0.12136517 0.15066482 -0.19788565 -0.09425312 -0.31851715 -0.045816187 0.041124944 0.2576865 -0.08098077 -0.16409478 -0.034575876 0.05468603 0.0026357558 -0.08415585 0.0448188 0.05459025 0.13188097 -0.2322064 0.09063758 -0.0073546995 0.089704394 0.3436597 0.4497347 -0.021519933 -0.17632277 0.09625004 0.06429077 0.07020159 0.36718342 0.016092306 -0.32185605 0.2041481 -0.011512142 -0.007929958 0.18317659 -0.08635027 -0.4616801 0.0474467 0.06469651 0.058729284 -0.17562479 -0.007433383 0.21133935 0.14583492 0.07700981 -0.07514953 -0.29642656 -0.03891455 0.09758909 -0.076123215 0.054472193 -0.093711376 0.17729479 -0.184262 0.045473453 0.09960942 0.2707672 0.009175704 -0.2527285 0.18169653
6 0.15203276 0.27413055 0.18310006 0.39587513 0.037857126 0.11888788 0.15903251 0.25594065 -0.1316494 0.018295538 -0.27115235 0.3675914 0.27120054 -0.20347367 0.04104238 0.27015883 -0.45710775 0.015640834 0.16065904 -0.08034976 -0.37174904 0.13293973 -0.5034994 0.13812312 0.1628036 0.3667994 0.0035302234 0.3779273 0.24696523 -0.023483695 0.32028815 -0.040092316 -0.08963062 -0.21022372 -0.43404096 0.47612476 -0.37834486 -0.22364862 0.34365782 -0.5668716 -0.14971395 0.26007304 -0.4026417 0.029633917 0.11777294 -0.3625579 -0.39907908 0.41219196 -0.2147906 0.12254308 -0.1412002 -0.1902263 -0.008652602 -0.127994 0.28081188 -0.035119727 0.3953541 -0.27353173 -0.01838992 -0.09927586 -0.27483866 0.20132115 -0.1546944 0.21553518
7 0.15197921 0.15965264 0.1714131 0.36009192 0.104512565 0.15403551 0.082769126 0.2147012 -0.111629434 0.032719392 -0.23273617 0.31575072 0.29658344 -0.10625811 0.12430738 0.23832558 -0.39859417 0.053071696 0.21231894 0.0052553867 -0.25473934 0.06822225 -0.43816882 0.10257894 0.17182273 0.37745637 0.036730118 0.30387512 0.2732897 -0.027141573 0.36729676 -0.005075649 -0.041052226 -0.24794757 -0.45489696 0.41008806 -0.37046462 -0.2316952 0.36918405 -0.55698216 -0.26138872 0.24623859 -0.3488329 -0.008046504 0.10947457 -0.26080662 -0.35549745 0.39124817 -0.23278123 0.12355456 -0.22029157 -0.15487392 -0.022996271 -0.13597389 0.2813828 -0.047541056 0.31801194 -0.30360913 -0.017660597 -0.04567676 -0.24837616 0.22426642 -0.11829293 0.24086294
31 -0.039029323 -0.12127227 -0.051209763 -0.039138842 -0.035295647 0.24004503 -0.00072270446 0.0887364 -0.13044398 -0.04950561 0.1260123 0.06296658 -0.10735606 -0.19293137 -0.11882106 -0.011828333 -0.06674133 -0.118643686 -0.09163586 0.035823293 0.007430753 -0.19611318 0.10558061 0.010363795 0.21231842 0.2994653 0.2827061 -0.027403766 -0.09282842 0.09953821 0.1379619 -0.018572176 0.24791937 0.14100048 -0.23132406 0.1484739 -0.11708868 0.049247425 0.29427782 -0.22097245 -0.2349982 0.030423367 0.09860375 0.18431781 -0.013665248 -0.10028862 0.27046612 0.05954312 -0.04450767 -0.06430398 -0.24131244 -0.02954184 0.125606 -0.084812626 -0.0056033814 0.09362176 0.17676307 -0.057742663 0.0058504143 0.0673278 0.31719053 -0.045060772 -0.2473429 0.33684668
30 -0.107824154 -0.23865868 -0.14151883 -0.11591894 0.07564513 0.2594695 -0.19616422 -0.056616444 -0.21375929 -0.043586962 0.19005273 0.05557351 -0.08085382 -0.06674332 -0.0013305042 -0.034986705 0.027079059 -0.11560462 0.0019306464 0.18385322 0.2380061 -0.32883924 0.23841776 -0.026899347 0.1892869 0.3530662 0.49391505 -0.18182771 -0.12298372 0.11399627 0.17563485 0.034435514 0.41112444 0.091663346 -0.3542137 0.07863748 -0.10159173 -0.008797957 0.3432899 -0.111892216 -0.5031292 0.07261552 0.21530077 0.10501808 -0.07216597 0.08278244 0.3511744 0.06628661 -0.019021738 -0.07229146 -0.45109293 0.03379648 0.1211006 -0.115970485 0.016642822 0.042329792 0.10623164 -0.1705954 0.008438715 0.16738632 0.38532597 -0.018570445 -0.24052161 0.3504365
25 -0.07317937 0.043332197 -0.25447387 -0.08538988 0.21989176 0.13402991 -0.32245034 -0.20003593 -0.40729606 -0.02625894 0.03535141 0.3358583 -0.018971603 -0.112716496 0.06602677 0.07260598 0.0421128 -0.07370309 0.15106325 0.09980177 0.28796428 -0.27550355 0.110915855 -0.0342593 0.050502155 0.36089617 0.5709708 -0.0398456 -0.2088229 0.11149326 0.051520426 0.1409693 0.48376048 -0.08047123 -0.37379977 0.2188317 0.053688012 -0.06319483 0.1194053 -0.033220757 -0.6292517 0.06613101 0.045354187 -0.017961154 -0.24826401 0.076252945 0.18103458 0.19303437 0.11688862 -0.09728648 -0.36290693 -0.03140422 0.0802408 -0.09565983 0.088355124 -0.1780031 0.13489597 -0.29002777 0.09001383 0.16341615 0.24499708 0.044529054 -0.255886 0.13086194
29 -0.051184315 -0.03820196 -0.103912674 0.0011405447 0.020966187 0.21858016 -0.060662378 0.009270406 -0.20453012 -0.05324482 0.08988986 0.17056665 -0.09299884 -0.21566859 -0.08040942 0.015589139 -0.042308718 -0.1085286 -0.037675492 0.030858262 0.03325522 -0.16633186 0.075969614 0.00927044 0.17437713 0.30203608 0.29922664 -0.009056752 -0.11510608 0.09531348 0.12070354 0.006149801 0.27313954 0.07845624 -0.26002955 0.19622596 -0.071611166 0.02278262 0.21957305 -0.17391111 -0.287182 0.03559193 0.053625856 0.12774642 -0.09358036 -0.08871509 0.21809141 0.11851354 0.012049007 -0.0655939 -0.23078421 -0.042209785 0.091262445 -0.08837116 0.02634244 0.031082056 0.17972466 -0.11537368 0.032810725 0.086868756 0.2617102 -0.00871807 -0.2570929 0.2667969
5 0.1454978 0.2369432 0.16160382 0.36630785 0.022786323 0.15948938 0.16473772 0.2742363 -0.09395373 0.010939117 -0.20899372 0.3364542 0.18969055 -0.20391645 0.0032055222 0.21839525 -0.42186928 0.0029113514 0.113749884 -0.0827283 -0.35226977 0.11453077 -0.42716444 0.114183664 0.19327216 0.34500226 -0.008931246 0.33312753 0.21571924 0.015994439 0.3095596 -0.051619146 -0.08850149 -0.16615926 -0.35819334 0.44884485 -0.34211466 -0.16087845 0.3218127 -0.5573246 -0.11563873 0.19908558 -0.3537414 0.06741993 0.11477933 -0.36125648 -0.29393074 0.3523556 -0.19123155 0.10968633 -0.11225436 -0.17700201 0.001326914 -0.12436718 0.2381226 0.009298795 0.35618484 -0.21840975 -0.028350819 -0.0719241 -0.19864427 0.17687458 -0.17129607 0.23895732
11 0.16916846 0.17336413 0.20722048 0.37041512 0.039589953 0.17292607 0.19489597 0.29936382 -0.05808249 0.020775095 -0.20725623 0.28408223 0.23876868 -0.17595682 0.037750795 0.22693613 -0.43381235 0.026643721 0.12816332 -0.050942976 -0.35870373 0.12115667 -0.44078487 0.106376186 0.20732316 0.3520448 -0.053269945 0.34073284 0.2846344 -0.022153638 0.36230943 -0.047273785 -0.11706329 -0.17800769 -0.3843938 0.4060891 -0.3795801 -0.18251172 0.38200447 -0.6088251 -0.11883713 0.20521258 -0.353669 0.06970408 0.15217854 -0.35257414 -0.31369767 0.3504811 -0.23863943 0.1270646 -0.15133929 -0.16642079 -0.002128636 -0.1274628 0.2496747 0.018333081 0.35242516 -0.23330313 -0.039457858 -0.08519266 -0.21359052 0.19183281 -0.14283355 0.29537353
26 -0.09113325 0.015917482 -0.2849517 -0.09862014 0.23828374 0.1312021 -0.37085098 -0.23267598 -0.44585216 -0.037281144 0.023011623 0.34416837 -0.04939297 -0.12525551 0.05389283 0.07740946 0.06846084 -0.06813392 0.16012466 0.11665992 0.3072877 -0.31180835 0.14675735 -0.04123399 0.035909433 0.39322087 0.62304735 -0.06591108 -0.23745008 0.105811596 0.039323494 0.15528898 0.5222387 -0.074228264 -0.40204126 0.21167493 0.068926126 -0.050010838 0.14438613 -0.0005318591 -0.69366115 0.046925135 0.087473884 -0.02168975 -0.27492645 0.09368805 0.23602179 0.1996528 0.14247167 -0.09484405 -0.4123594 -0.03018653 0.09339723 -0.09661127 0.100727074 -0.19950256 0.14639415 -0.31063026 0.08566407 0.16496871 0.27285564 0.050117124 -0.265231 0.1264847
20 0.0018367092 0.08121662 0.007765026 0.091181666 -0.048733246 0.19053632 0.09266496 0.14112513 -0.12649788 -0.04310568 0.016647562 0.21143699 -0.08400501 -0.28425813 -0.16665336 0.07841273 -0.18585789 -0.1221966 -0.084079236 -0.077024624 -0.1771132 -0.05502631 -0.065314904 0.06829352 0.20466691 0.30370265 0.15591507 0.12204141 -0.057793077 0.07902021 0.11413696 -0.0490963 0.11968296 0.092966825 -0.21541303 0.2711981 -0.15027152 0.020429855 0.21943402 -0.28163603 -0.100828364 0.060505047 -0.058483604 0.19702104 -0.007244083 -0.25458696 0.11408454 0.14351249 -0.018817833 -0.028783938 -0.103493646 -0.089637145 0.10299147 -0.07404522 0.02835444 0.060752444 0.27026787 -0.057358358 -0.004133861 -0.0034594354 0.18297565 0.00072662835 -0.25020397 0.2652495
13 0.004540521 0.19699734 0.007875249 0.12346018 -0.07820083 0.18091138 0.14476116 0.17128374 -0.1545931 -0.065792955 -0.007889087 0.30626145 -0.16124184 -0.38461217 -0.2592925 0.09194577 -0.21276803 -0.14136592 -0.122033454 -0.17217278 -0.25232172 -0.012605468 -0.08943347 0.08748853 0.22086099 0.30800173 0.1479613 0.18695828 -0.11470354 0.12738079 0.071973585 -0.07658527 0.11456817 0.1023977 -0.17377736 0.36467686 -0.121674 0.06150779 0.16077265 -0.3155182 -0.03455319 0.028790452 -0.10789059 0.236637 -0.04262854 -0.33361864 0.13626796 0.1616864 0.01871517 -0.029640846 -0.019754231 -0.11979137 0.11968566 -0.06988025 0.02561225 0.055733126 0.33146098 -0.015705734 0.008100798 -0.032014515 0.20615907 -0.017418439 -0.3087195 0.23479995
18 0.033343613 0.20308517 0.04608044 0.14673398 -0.05863383 0.17652364 0.16461174 0.19332181 -0.1409152 -0.047159124 -0.051703338 0.30167127 -0.08092464 -0.3558098 -0.21061338 0.12658209 -0.25396207 -0.11068755 -0.08393157 -0.15713798 -0.29043645 0.02773504 -0.1754503 0.0981123 0.20707606 0.30980226 0.10083919 0.22846496 -0.044375055 0.084516 0.1121883 -0.06715513 0.085216045 0.070718296 -0.20931263 0.37237036 -0.16005911 0.011885324 0.1998234 -0.36506855 -0.032051228 0.058672786 -0.15191299 0.2142552 -0.009906894 -0.36163953 0.029858867 0.19467817 -0.018114403 -0.0073547615 -0.04448356 -0.1382784 0.10378337 -0.07860442 0.06035817 0.04808877 0.3464829 -0.042509872 0.004045972 -0.058727887 0.13434453 0.007884737 -0.2716695 0.2504081
22 0.025379758 0.19580822 0.039519638 0.14187014 -0.056963068 0.1592669 0.13608217 0.16497783 -0.14663784 -0.042498346 -0.057759218 0.29208416 -0.07095032 -0.33324075 -0.20307043 0.12294709 -0.24003266 -0.11703891 -0.077533744 -0.15686618 -0.2646177 0.007866632 -0.16080076 0.08940459 0.18837684 0.30910277 0.12906192 0.21807612 -0.060452797 0.07514939 0.093896 -0.054181386 0.0779572 0.06692598 -0.2153414 0.34962672 -0.16063108 0.008599816 0.18538994 -0.31858888 -0.035450872 0.07785929 -0.15345581 0.20842552 -0.009754477 -0.33009008 0.03430794 0.19141889 -0.01534727 -0.014416787 -0.038418233 -0.13839649 0.0982886 -0.057270706 0.04699464 0.022907402 0.3354689 -0.048628427 0.0041049873 -0.06275813 0.11547715 -0.0016200676 -0.27276176 0.22716387
17 0.19888926 0.14243461 0.26820785 0.4506178 0.070773736 0.19863714 0.1840674 0.32706127 -0.027046934 0.051211484 -0.24713226 0.2518207 0.40001965 -0.08921962 0.16132505 0.25973928 -0.49627915 0.07756203 0.21164921 0.033577077 -0.35242832 0.1376816 -0.5514278 0.1154779 0.20319094 0.37943777 -0.0882722 0.35261694 0.41313693 -0.061481327 0.4887364 -0.03557035 -0.16087653 -0.25187016 -0.49835184 0.4139457 -0.4849147 -0.28082538 0.4937121 -0.6923515 -0.19600537 0.3035443 -0.41768384 -0.010177827 0.21593769 -0.32006517 -0.47898135 0.42598918 -0.33447754 0.17392634 -0.23335475 -0.16703296 -0.048226237 -0.15331353 0.33750576 0.018501813 0.33907738 -0.3198408 -0.045321397 -0.07396459 -0.34289315 0.26615304 -0.08155708 0.32848823
23 -0.078625746 -0.20593545 -0.11708019 -0.096858814 0.030233022 0.23499599 -0.12731352 0.00994871 -0.16785793 -0.046903696 0.16298653 0.03673577 -0.071292505 -0.07840011 -0.012702658 -0.013595569 -0.018874474 -0.114089675 -0.019274607 0.12719616 0.157012 -0.2761584 0.17208995 -0.024964 0.205353 0.31141838 0.40436676 -0.11639477 -0.094740525 0.107345276 0.16864605 0.026754059 0.3488355 0.09879725 -0.31286547 0.09060691 -0.10882646 -0.0041696825 0.33700576 -0.16494527 -0.40602458 0.067183 0.15668069 0.10566811 -0.025047323 0.022335287 0.2813653 0.0781173 -0.054473158 -0.06378701 -0.38825485 0.009094766 0.11983671 -0.09936641 0.018284893 0.05409988 0.11166802 -0.12974627 -0.005871058 0.11633455 0.31284037 -0.018206172 -0.21291028 0.34728405
10 -0.0683796 -0.0885934 -0.08262123 -0.032065123 -0.059006818 0.24637267 -0.004795682 0.069711305 -0.16276789 -0.07117298 0.1469379 0.10416144 -0.18057483 -0.25281048 -0.16693386 -0.023800837 -0.04841073 -0.14575548 -0.1267523 -0.0007303075 -0.008598276 -0.20358288 0.12909791 0.01759982 0.22639993 0.301776 0.29584098 -0.04370472 -0.15374196 0.12350684 0.11411801 -0.040931165 0.26369068 0.16673887 -0.21860024 0.18208233 -0.09265751 0.085462615 0.2578589 -0.1898352 -0.21606652 0.01800557 0.1245693 0.20909105 -0.057085417 -0.121510655 0.32130986 0.05466603 0.008564768 -0.07747669 -0.22118023 -0.03746779 0.13660872 -0.08798043 -0.033043656 0.10050218 0.19817524 -0.04159598 0.014493774 0.069608055 0.37569198 -0.07028862 -0.2913946 0.33894265
15 -0.043097924 -0.25367013 -0.07956953 -0.047446977 0.045725495 0.26822734 -0.11883084 0.029251534 -0.13185821 -0.026394514 0.15866825 0.0050637173 0.0014802581 -0.0391821 0.052499738 -0.019530639 -0.018216657 -0.07938548 0.01593809 0.1852101 0.14289138 -0.2575793 0.13337639 -0.036171958 0.19415484 0.30484903 0.33350375 -0.12736776 -0.005713812 0.0847886 0.2462109 0.030383565 0.29571947 0.057336345 -0.32060722 0.08101751 -0.150795 -0.031225905 0.38351586 -0.21562842 -0.42627227 0.0742264 0.14584304 0.07587278 -0.00096112664 0.045027323 0.22709325 0.08237818 -0.09398454 -0.0406049 -0.41050443 0.025067909 0.080174655 -0.11504417 0.04802209 0.06760825 0.0855541 -0.16815583 -0.0050116116 0.12962739 0.27340004 0.01904983 -0.18309906 0.37420192
19 -0.059295695 -0.21951854 -0.101048 -0.07195188 0.022339363 0.25770676 -0.114032105 0.033155423 -0.15374172 -0.042628642 0.17853634 0.034294154 -0.067221805 -0.07693089 -0.0038031877 -0.037321802 -0.033474494 -0.0976002 -0.020432075 0.1456049 0.14411166 -0.26188898 0.1670951 -0.02030345 0.22554438 0.3253766 0.3827028 -0.1335167 -0.066283375 0.108068064 0.19574901 0.010055295 0.32411408 0.08372382 -0.31004572 0.10250257 -0.13042709 0.0067067 0.36416546 -0.20193923 -0.41303703 0.06426384 0.16081429 0.11545339 -0.014493383 0.007319788 0.2919448 0.074432716 -0.07655591 -0.05553051 -0.38533282 0.014482505 0.11070858 -0.112941146 0.027198834 0.066439986 0.12649906 -0.13712865 -0.013084303 0.12905796 0.3111367 -0.0139487125 -0.21335825 0.36510924
16 -0.07128513 -0.34058678 -0.08322658 -0.10085781 0.035837196 0.29499206 -0.13110533 0.030999668 -0.13057357 -0.037208676 0.21458608 -0.06169233 -0.042177238 -0.027923496 0.030054223 -0.058562823 0.015319616 -0.09890381 -0.028461287 0.21081735 0.20307004 -0.32257462 0.20797445 -0.035900734 0.21136202 0.3117081 0.3857276 -0.1873076 -0.03268801 0.08115259 0.23540002 0.022122493 0.3316249 0.10899669 -0.33573827 0.019663218 -0.14682478 -0.008581467 0.42363068 -0.18788692 -0.45016906 0.069561735 0.21882896 0.115712665 0.007758735 0.08595672 0.3247264 0.034457244 -0.102252476 -0.049349513 -0.45729634 0.043710936 0.106468745 -0.11676436 0.012956933 0.098534785 0.074047156 -0.14416127 -0.010275846 0.15312806 0.35348186 -0.00936613 -0.1936605 0.41908002
21 -0.060783517 -0.25685444 -0.058345936 -0.059229184 -0.008791762 0.27015746 -0.058489244 0.06921833 -0.10915183 -0.04864161 0.17486517 -0.031421483 -0.059310976 -0.08095638 -0.027011655 -0.03495306 -0.034407724 -0.103407495 -0.05238296 0.14865908 0.100522056 -0.24655893 0.16346103 -0.015016048 0.23836902 0.28965172 0.3276198 -0.123259544 -0.047201246 0.08830834 0.22582065 -0.011968679 0.27911484 0.13264337 -0.29724336 0.07284714 -0.15490152 -0.006689506 0.3925995 -0.2193145 -0.34960207 0.063879564 0.17208947 0.13171527 0.02230958 0.0061415983 0.28366697 0.048553422 -0.09381194 -0.036387965 -0.3674437 0.019444438 0.10069939 -0.11970672 0.011953011 0.111701645 0.11577145 -0.094552934 -0.018695848 0.1177827 0.32825682 -0.014139197 -0.20320769 0.41273475
27 -0.07847041 -0.27519992 -0.090666555 -0.07718438 0.01793554 0.28976607 -0.11003129 0.025332473 -0.14851251 -0.056880143 0.20680705 0.001855349 -0.10019105 -0.09649562 -0.018328512 -0.05545632 0.0037373137 -0.123286724 -0.061684433 0.16754901 0.13833015 -0.29742178 0.21438569 -0.025343696 0.22932835 0.32826564 0.38204092 -0.15755726 -0.06772645 0.10187747 0.20757163 -0.005863259 0.33270165 0.13674591 -0.3071109 0.07887192 -0.13228235 0.02899869 0.3653634 -0.17223062 -0.40257353 0.041763365 0.22029303 0.13527825 -0.036353048 0.022580702 0.34896514 0.025107088 -0.051256087 -0.070144355 -0.4000234 0.03724029 0.118603446 -0.10319024 -0.011749293 0.09326034 0.11281084 -0.10508723 -0.023377208 0.14009677 0.37970325 -0.036530178 -0.23045814 0.3875397
12 0.069745146 0.21739842 0.07726619 0.20908464 -0.029405862 0.14979425 0.15050294 0.20271339 -0.11827268 -0.025269696 -0.08933181 0.31038666 -0.012421887 -0.30822998 -0.16343413 0.14418432 -0.28315774 -0.08608147 -0.022843571 -0.15092078 -0.30383423 0.043989155 -0.22295105 0.09351924 0.19636057 0.30284885 0.062237486 0.24786484 0.022218255 0.07865425 0.1382282 -0.051882423 0.012673363 -0.008511299 -0.22113307 0.37555453 -0.18255195 -0.023601534 0.19245501 -0.3982451 -0.041650973 0.07087271 -0.21515308 0.15640862 0.017371245 -0.33215907 -0.04076542 0.23295057 -0.051224988 0.025726864 -0.028825441 -0.13857298 0.05901204 -0.078010164 0.10486336 0.026007393 0.3314998 -0.08649245 -0.008679156 -0.054509293 0.023682373 0.06510628 -0.23502217 0.21816081
